tree
version=v4
num_class=1
num_tree_per_iteration=1
label_index=0
max_feature_idx=66
objective=binary sigmoid:1
feature_names=ret_1d ret_3d ret_5d ret_10d ret_21d ret_63d rsi_7 rsi_14 rsi_21 sma_5 close_sma5_ratio sma_10 close_sma10_ratio sma_20 close_sma20_ratio sma_50 close_sma50_ratio sma_100 close_sma100_ratio sma_200 close_sma200_ratio ema_9 ema_21 ema_50 macd macd_signal macd_hist macd_cross bb_pos_20 bb_width_20 bb_squeeze_20 atr_14 atr_pct vol_5d vol_21d vol_ratio vol_z vol_ratio_20 vol_change vol_trend_5 momentum_5 momentum_10 momentum_21 momentum_63 stoch_k_14 stoch_d_14 adx di_diff obv_sma10 obv_slope obv_ratio pos_52w dist_high_52w dist_low_52w higher_high_5 lower_low_5 trend_5_20 trend_20_50 trend_50_200 ma_aligned body_pct upper_shadow lower_shadow is_green dow_mon dow_fri sym_hash
feature_infos=[-0.78717949489458527:2.9759036550147737] [-0.83146066857242473:5.7500003456079956] [-0.83333332470997579:4.3999998835846839] [-0.85517241478976258:3.4999999029872368] [-0.92151162853658908:3.8459242511500262] [-0.98775510113897336:4.9907403084231188] [0:99.99999997491669] [0:99.999999861855727] [0:99.998235317565701] [0:1770.3299804687499] [0:2.7551020796052712] [0:1730.6159912109374] [0:3.2530121377560177] [0:1612.6834899902344] [0:3.7762238562098518] [0:1525.4109765625001] [0:3.6741480404369642] [0:1426.5655651855468] [0:3.8747896801514115] [0:1218.1556762695313] [0:4.5160890474284212] [0.00052516846056836351:1728.8476068570735] [0.00096366627234048324:1643.2884369508333] [0.0036672305782598337:1546.0943123618736] [-93.016242030062074:94.586990251879342] [-85.663393007526551:79.467377468566639] [-35.90938903704042:34.388054188099517] [0:1] [-0.54853523467204868:1.562130821646015] [0:3.111819205416877] [0:1] [0:101.78571428571429] [0:4.3648882070660004] [0:1.541065589418215] [0:0.87168779246936445] [0:2.1974520926406536] [-1:1.1974520926406533] [0:19.710480772306603] [-1:4889.1594896331735] [0:3.9629236575087488] [-0.83333332470997579:4.3999998835846839] [-0.85517241478976258:3.4999999029872368] [-0.92151162853658908:3.8459242511500262] [-0.98775510113897336:4.9907403084231188] [0:99.999999994202895] [0:99.999999776529762] [0:99.999999990000006] [-78.146611869001902:100] [-2388833140:5105236300] [-1637444400:1990176000] [-4533.9236111111113:15667.857142857143] [0:0.99999999996481603] [-0.99558823532432927:0] [0:88.499999236024436] [0:1] [0:1] [-0.72248803550578211:0.91827537864212627] [-0.8261060942545857:0.52659596630259653] [-0.84575932433535028:1.3885217261901346] [0:1] [0:7.1666663820958822] [-0.000345550404191158:1.041884942356494] [-0.0010936501792867094:0.98639455832819367] [0:1] [0:1] [0:1] [0.002:0.997]
tree_sizes=6781

Tree=0
num_leaves=63
num_cat=0
split_feature=31 53 12 27 52 52 6 32 46 4 33 18 5 58 51 10 12 0 7 7 7 37 31 7 28 7 58 16 9 53 32 0 19 10 0 20 32 65 28 39 51 58 9 59 7 32 6 8 39 9 8 52 32 31 16 12 16 7 32 18 46 19
split_gain=1319.11 254.216 214.053 165.066 140.854 139.655 131.714 113.198 102.843 93.0812 72.2176 71.8999 62.9436 59.6027 60.6728 62.1073 57.2689 53.4647 46.1082 42.0221 41.9921 41.4139 41.255 41.2359 39.4089 52.0815 42.9282 40.2352 38.4879 47.3188 37.1356 35.6942 35.6345 35.258 45.5542 35.2138 34.9311 33.2558 32.6396 32.2489 31.913 41.9814 31.8327 31.7588 37.9446 34.4623 31.6604 31.4468 31.2733 31.1068 30.9602 30.3491 39.8514 30.0033 28.0908 33.8992 27.2094 27.1156 37.3914 26.9934 26.544 40.4346
threshold=1.0000000180025095e-35 0.02807093151227014 0.87753513477419232 1.0000000180025095e-35 -0.10613468047477735 -0.059735661352076412 1.0000000180025095e-35 0.015084502480524968 36.295103415384254 0.012052823937645842 0.031236544006003425 1.0561957876915222 -0.058221126144023076 0.029940067267953733 0.8226051132271327 0.987330031054096 1.0350252158239355 0.092980414830152749 10.069169526273081 55.726307868245151 73.252899587332692 0.33905173212077216 0.16200000473431181 28.880226091558502 -0.065665389747629685 29.279855111837112 0.069220874659007073 1.0387211914110066 96.618913269042977 0.065841482351568628 0.022145308036207501 0.092980414830152749 522.69248840332045 1.0082151442574323 1.0000000180025095e-35 1.0165685465024843 0.024797274647283037 1.0000000180025095e-35 0.90843814475546614 1.0859684648789114 0.0967987548366918 0.025323098948352277 17.11954498291016 1.0000000180025095e-35 83.257446245204648 0.0093052010195419175 83.61083528840426 16.910600339817716 0.59276460171299028 247.89795074462893 41.537974247283771 -0.45033048260012792 0.024226221322806406 0.83958783092329392 0.84128797918061549 1.0033857850112511 1.0757124867625365 46.385236242548139 0.045427401921336048 1.326611390895015 36.652364227527933 62.806142749786382
decision_type=2 2 2 2 2 2 2 2 2 2 2 2 2 2 2 2 2 2 2 2 2 2 2 2 2 2 2 2 2 2 2 2 2 2 2 2 2 2 2 2 2 2 2 2 2 2 2 2 2 2 2 2 2 2 2 2 2 2 2 2 2 2
left_child=2 5 6 7 10 22 33 13 17 28 12 23 38 19 15 -15 18 24 30 -3 53 -12 -2 -10 25 -9 27 47 29 -6 -7 -25 51 34 -1 -14 -30 -4 40 -16 49 57 -32 44 -11 -46 -31 -26 -28 -5 -43 -13 -53 -20 -50 59 -38 58 -42 -56 -41 -62
right_child=1 3 37 4 9 16 -8 8 11 43 21 32 35 14 39 -17 -18 -19 20 -21 -22 -23 -24 31 26 -27 48 -29 36 46 42 -33 -34 -35 -36 -37 56 -39 -40 60 41 50 -44 -45 45 -47 -48 -49 54 -51 -52 52 -54 -55 55 -57 -58 -59 -60 -61 61 -63
leaf_value=0.092534077493279215 0.068390924380178506 0.12473599162867374 0.018092439974910932 0.096054208927661838 0.14244843927117368 0.1454357076192179 0.031673168140717786 0.14022220424893023 0.11588424968212339 0.10707392677676404 0.052261618535898682 0.069862074604578869 0.096611147340478834 0.13802335319610173 0.11701772413554697 0.09434984395561094 0.053310689035303067 0.064812281885629194 0.17194963527526794 0.14253893028570885 0.089630610883606202 0.096194382213812865 0.12157422409054312 0.12915167739184355 0.073596734690856189 0.10832801116911753 0.12899650129202914 0.12219974020459198 0.10905880296203491 0.11662882276430778 0.16653324027345789 0.050588463954933119 0.14553200437189273 0.13392821296275934 0.061044255752951401 0.1083753980240144 0.13483137164510203 0.052821646220939163 0.094381363425684969 0.14209477701996348 0.12046576925286578 0.082907470208418571 0.054951134400010267 0.11158583629716994 0.020215740347601388 0.092889702167346627 0.13937039153454853 0.1105282137427151 0.13121939095646268 0.14721407332304923 0.11324537608219785 0.10100738036508033 0.11779348577933671 0.14793765078552393 0.10052751488359803 0.11201504578071907 0.042770741998539447 0.1135144118766261 0.15433278200936335 0.063767437728245155 0.14811634748121574 0.079869884464657995
leaf_weight=320.01831936836243 37.136082231998444 1329.6711322665215 295.84248059988022 407.99843364953995 323.00914478302002 45.111616671085358 151.53515434265137 242.25685858726501 1035.32406437397 2941.4767953157425 55.081034719944 48.600912988185883 1953.7567021250725 99.44494503736496 851.88677227497101 445.38375133275986 15.70183342695236 66.047394573688507 216.58560711145401 442.64216136932373 23.677367866039276 2052.453940808773 1689.5671238303185 1726.9524415135384 58.321095585823059 270.66970002651215 125.6146674156189 804.03356564044952 926.65740764141083 880.79808461666107 7.9755344390869132 14.45565617084503 68.539749085903168 33.646785914897919 179.9479957818985 944.85159558057785 209.60701447725296 91.967881500720978 282.13453078269958 284.12841439247131 488.25224894285202 169.23087137937546 30.157489597797394 5199.7992188334465 17.197246134281158 302.82107323408127 185.43117570877075 4338.6907348632812 88.977056086063385 31.902137756347656 166.48928141593933 659.47700393199921 761.91277438402176 332.97856283187866 2201.9952115416527 740.47852557897568 8.2247698903083784 1553.9830383658409 97.949532330036163 51.093267500400543 39.379201292991638 48.10244208574295
leaf_count=1284 149 5335 1187 1637 1296 181 608 972 4154 11802 221 195 7839 399 3418 1787 63 265 869 1776 95 8235 6779 6929 234 1086 504 3226 3718 3534 32 58 275 135 722 3791 841 369 1132 1140 1959 679 121 20863 69 1215 744 17408 357 128 668 2646 3057 1336 8835 2971 33 6235 393 205 158 193
internal_value=0.110671 0.112197 0.0559916 0.111148 0.107979 0.127957 0.0728159 0.11476 0.112645 0.111678 0.103021 0.11899 0.10578 0.122706 0.116207 0.102334 0.147294 0.1096 0.149558 0.129187 0.154608 0.0950411 0.120425 0.123794 0.109932 0.123385 0.109111 0.111916 0.120085 0.125678 0.114714 0.128493 0.110323 0.0845215 0.0811826 0.100444 0.11329 0.0262984 0.110619 0.122388 0.112189 0.114395 0.0785043 0.109161 0.105293 0.0889417 0.120591 0.110036 0.104562 0.0997832 0.0979637 0.108675 0.110009 0.157419 0.103564 0.10274 0.131303 0.116975 0.12614 0.0996896 0.134682 0.110655
internal_weight=39515 38442.1 1072.96 36043.2 19199.1 2398.89 685.148 16844.1 13303.4 10995 8204.08 4315.26 6096.55 3540.64 1768.33 544.829 672.188 8988.18 656.486 1772.31 573.242 2107.53 1726.7 2776.73 8922.13 512.927 8409.2 5201.05 2533.73 1389.24 83.2446 1741.41 1538.53 533.613 499.966 2898.61 1144.49 387.81 3197.94 1223.5 2915.81 2475.9 38.133 8461.29 3261.5 320.018 1066.23 4397.01 3208.16 439.901 335.72 1469.99 1421.39 549.564 3082.54 2993.57 217.832 2140.18 586.202 2253.09 371.61 87.4816
internal_count=158545 154240 4305 144615 77032 9625 2749 67583 53377 44115 32917 17314 24461 14206 7095 2186 2697 36063 2634 7111 2300 8456 6928 11141 35798 2058 33740 20868 10166 5574 334 6987 6173 2141 2006 11630 4592 1556 12831 4909 11699 9934 153 33949 13086 1284 4278 17642 12872 1765 1347 5898 5703 2205 12368 12011 874 8587 2352 9040 1491 351
is_linear=0
shrinkage=1


end of trees

feature_importances:
rsi_14=7
atr_pct=6
ret_1d=3
sma_5=3
close_sma10_ratio=3
close_sma50_ratio=3
atr_14=3
dist_high_52w=3
trend_50_200=3
rsi_7=2
rsi_21=2
close_sma5_ratio=2
close_sma100_ratio=2
sma_200=2
bb_pos_20=2
vol_trend_5=2
adx=2
pos_52w=2
dist_low_52w=2
ret_21d=1
ret_63d=1
close_sma200_ratio=1
macd_cross=1
vol_5d=1
vol_ratio_20=1
ma_aligned=1
dow_fri=1

parameters:
[boosting: gbdt]
[objective: binary]
[metric: auc]
[tree_learner: serial]
[device_type: cpu]
[data_sample_strategy: bagging]
[data: ]
[valid: ]
[num_iterations: 500]
[learning_rate: 0.05]
[num_leaves: 63]
[num_threads: 4]
[seed: 42]
[deterministic: 0]
[force_col_wise: 0]
[force_row_wise: 0]
[histogram_pool_size: -1]
[max_depth: -1]
[min_data_in_leaf: 20]
[min_sum_hessian_in_leaf: 0.001]
[bagging_fraction: 0.8]
[pos_bagging_fraction: 1]
[neg_bagging_fraction: 1]
[bagging_freq: 5]
[bagging_seed: 400]
[bagging_by_query: 0]
[feature_fraction: 0.8]
[feature_fraction_bynode: 1]
[feature_fraction_seed: 30056]
[extra_trees: 0]
[extra_seed: 12879]
[early_stopping_round: 0]
[early_stopping_min_delta: 0]
[first_metric_only: 0]
[max_delta_step: 0]
[lambda_l1: 0.1]
[lambda_l2: 0.1]
[linear_lambda: 0]
[min_gain_to_split: 0]
[drop_rate: 0.1]
[max_drop: 50]
[skip_drop: 0.5]
[xgboost_dart_mode: 0]
[uniform_drop: 0]
[drop_seed: 17869]
[top_rate: 0.2]
[other_rate: 0.1]
[min_data_per_group: 100]
[max_cat_threshold: 32]
[cat_l2: 10]
[cat_smooth: 10]
[max_cat_to_onehot: 4]
[top_k: 20]
[monotone_constraints: ]
[monotone_constraints_method: basic]
[monotone_penalty: 0]
[feature_contri: ]
[forcedsplits_filename: ]
[refit_decay_rate: 0.9]
[cegb_tradeoff: 1]
[cegb_penalty_split: 0]
[cegb_penalty_feature_lazy: ]
[cegb_penalty_feature_coupled: ]
[path_smooth: 0]
[interaction_constraints: ]
[verbosity: -1]
[saved_feature_importance_type: 0]
[use_quantized_grad: 0]
[num_grad_quant_bins: 4]
[quant_train_renew_leaf: 0]
[stochastic_rounding: 1]
[linear_tree: 0]
[max_bin: 255]
[max_bin_by_feature: ]
[min_data_in_bin: 3]
[bin_construct_sample_cnt: 200000]
[data_random_seed: 175]
[is_enable_sparse: 1]
[enable_bundle: 1]
[use_missing: 1]
[zero_as_missing: 0]
[feature_pre_filter: 1]
[pre_partition: 0]
[two_round: 0]
[header: 0]
[label_column: ]
[weight_column: ]
[group_column: ]
[ignore_column: ]
[categorical_feature: ]
[forcedbins_filename: ]
[precise_float_parser: 0]
[parser_config_file: ]
[objective_seed: 16083]
[num_class: 1]
[is_unbalance: 0]
[scale_pos_weight: 1]
[sigmoid: 1]
[boost_from_average: 1]
[reg_sqrt: 0]
[alpha: 0.9]
[fair_c: 1]
[poisson_max_delta_step: 0.7]
[tweedie_variance_power: 1.5]
[lambdarank_truncation_level: 30]
[lambdarank_norm: 1]
[label_gain: ]
[lambdarank_position_bias_regularization: 0]
[eval_at: ]
[multi_error_top_k: 1]
[auc_mu_weights: ]
[num_machines: 1]
[local_listen_port: 12400]
[time_out: 120]
[machine_list_filename: ]
[machines: ]
[gpu_platform_id: -1]
[gpu_device_id: -1]
[gpu_use_dp: 0]
[num_gpu: 1]

end of parameters

pandas_categorical:[]
