tree
version=v4
num_class=1
num_tree_per_iteration=1
label_index=0
max_feature_idx=66
objective=binary sigmoid:1
feature_names=ret_1d ret_3d ret_5d ret_10d ret_21d ret_63d rsi_7 rsi_14 rsi_21 sma_5 close_sma5_ratio sma_10 close_sma10_ratio sma_20 close_sma20_ratio sma_50 close_sma50_ratio sma_100 close_sma100_ratio sma_200 close_sma200_ratio ema_9 ema_21 ema_50 macd macd_signal macd_hist macd_cross bb_pos_20 bb_width_20 bb_squeeze_20 atr_14 atr_pct vol_5d vol_21d vol_ratio vol_z vol_ratio_20 vol_change vol_trend_5 momentum_5 momentum_10 momentum_21 momentum_63 stoch_k_14 stoch_d_14 adx di_diff obv_sma10 obv_slope obv_ratio pos_52w dist_high_52w dist_low_52w higher_high_5 lower_low_5 trend_5_20 trend_20_50 trend_50_200 ma_aligned body_pct upper_shadow lower_shadow is_green dow_mon dow_fri sym_hash
feature_infos=[-0.78717949489458527:2.9759036550147737] [-0.83146066857242473:5.7500003456079956] [-0.83333332470997579:4.3999998835846839] [-0.85517241478976258:3.4999999029872368] [-0.92151162853658908:3.8459242511500262] [-0.98775510113897336:4.9907403084231188] [0:99.99999997491669] [0:99.999999861855727] [0:99.998235317565701] [0:1770.3299804687499] [0:2.7551020796052712] [0:1730.6159912109374] [0:3.2530121377560177] [0:1612.6834899902344] [0:3.7762238562098518] [0:1525.4109765625001] [0:3.6741480404369642] [0:1426.5655651855468] [0:3.8747896801514115] [0:1218.1556762695313] [0:4.5160890474284212] [0.00052516846056836351:1728.8476068570735] [0.00096366627234048324:1643.2884369508333] [0.0036672305788017583:1546.0943123723414] [-93.348043831118616:94.586990251879342] [-86.049908629796491:79.467377468566639] [-35.90938903704042:34.388054188099517] [0:1] [-0.54853523467202459:1.562130821646015] [0:3.111819205416877] [0:1] [0:101.78571428571429] [0:4.3648882070660004] [0:1.541065589418215] [0:0.87168779246936456] [0:2.1974520926406536] [-1:1.1974520926406533] [0:19.710480772306603] [-1:4889.1594896331735] [0:3.9629236575087488] [-0.83333332470997579:4.3999998835846839] [-0.85517241478976258:3.4999999029872368] [-0.92151162853658908:3.8459242511500262] [-0.98775510113897336:4.9907403084231188] [0:99.999999994202895] [0:99.999999776529762] [0:99.999999990000006] [-78.146611869001902:100] [-2301624140:5080871100] [-1637444400:1990176000] [-9490.6018518518522:67650] [0:0.99999999996481603] [-0.99558823532432927:0] [0:88.499999236024436] [0:1] [0:1] [-0.72248803550578211:0.91827537864212627] [-0.8261060942545857:0.52659596630259653] [-0.84575932433535028:1.3885217261901346] [0:1] [0:7.1666663820958822] [-0.000345550404191158:1.041884942356494] [-0.0010936501792867094:0.98639455832819367] [0:1] [0:1] [0:1] [0.002:0.997]
tree_sizes=6801

Tree=0
num_leaves=63
num_cat=0
split_feature=31 46 3 27 9 52 58 1 52 65 7 7 59 36 19 8 52 4 24 32 6 35 32 25 33 38 25 46 39 7 32 51 6 53 52 32 24 10 58 24 33 32 10 35 53 38 1 6 28 46 25 32 24 52 32 66 32 3 5 18 25 53
split_gain=1046.95 305.039 252.307 239.751 187.417 132.348 125.832 115.208 88.0918 72.7086 71.167 59.4483 66.0638 63.2364 57.4051 56.5343 63.5074 56.4976 56.0571 54.4381 51.8706 50.9531 48.4992 48.4158 53.6814 48.3953 47.1609 47.935 46.3459 43.2406 48.9361 42.6172 41.729 39.7386 39.0311 37.7336 37.1836 37.0323 35.507 34.0573 33.4674 33.095 32.228 31.7594 31.6162 31.4859 31.2924 31.0024 30.5365 33.7116 30.5182 40.6161 35.1427 32.694 30.1185 29.8944 29.6502 29.5811 28.7474 34.1822 28.5569 28.3935
threshold=1.0000000180025095e-35 1.0000000180025095e-35 -0.00092117032507155183 1.0000000180025095e-35 1.0000000180025095e-35 -0.34145558761129224 0.032137215514647217 0.015168338039641573 -0.63950775648909952 1.0000000180025095e-35 58.045079749324749 55.29409064415168 1.0000000180025095e-35 -0.59851363241485689 6.7038535846131202 39.678594256637247 -0.0369342260385822 -0.0027247038283509935 0.0055187092101771648 0.0082794758686204877 85.423996197495555 0.55542732371902781 0.0622652515329572 0.0044063042306665438 0.0026195270322873251 -0.6886374634162401 0.81224131576545167 49.748931609189412 0.80279729734602101 77.897774086677387 0.011163616618608794 0.89068701353012114 29.197036086164285 0.059270559733590307 -0.12245624558836231 0.0099286013207716319 -0.58541281841795001 1.0544303141665083 -0.014301468671345517 0.045264051017716585 0.010194725715623855 0.080651898842362013 1.0029065475089924 1.1817916161741071 0.073460843030997661 -0.74419176921258179 0.047161023640367568 96.204982673385913 -0.084687124048026197 62.23487085026629 5.06985011311754 0.023460115172793342 0.17747627889166753 -0.040800575755562389 0.049497161131375526 0.83350000000000002 0.012628784698736835 0.30251896525093908 0.016655641310451389 1.1020744732030765 -0.099738240106110695 0.38624012594282847
decision_type=2 2 2 2 2 2 2 2 2 2 2 2 2 2 2 2 2 2 2 2 2 2 2 2 2 2 2 2 2 2 2 2 2 2 2 2 2 2 2 2 2 2 2 2 2 2 2 2 2 2 2 2 2 2 2 2 2 2 2 2 2 2
left_child=2 7 9 6 18 25 8 17 -3 40 14 19 13 28 54 22 36 -2 -4 44 -21 -9 48 -6 -25 -5 27 31 61 34 38 -8 -19 39 -15 43 37 -17 -31 -18 -1 -37 -14 -28 -7 -32 -23 -47 -16 -50 52 -52 53 -36 -10 -22 -54 -27 -35 -60 -55 -13
right_child=1 3 4 5 23 11 26 21 10 -11 -12 12 42 29 15 16 33 32 -20 20 55 46 -24 24 -26 57 35 -29 -30 30 45 -33 -34 58 50 41 -38 -39 -40 -41 -42 -43 -44 -45 -46 47 -48 -49 49 -51 51 -53 56 60 -56 -57 -58 -59 59 -61 -62 -63
leaf_value=0.17410878396369345 0.17207890991013525 0.097093075606748458 0.073204638469824709 0.052374555401421934 0.027829162607769575 0.17641813351916091 0.11257172298321357 0.1003436800844054 0.074651359341393886 0.070699367816562553 0.13633512857244473 0.13981535479319693 0.11832642944429438 0.1009098541422784 0.14104460735031629 0.10933609978164183 0.12260622097095564 0.15859496370680803 0.12471126142315189 0.11351108595264625 0.14100047522842521 0.15772026876902895 0.14992292855688821 0.13610192117551467 0.049047938442120811 0.1006947724018443 0.1232839229929836 0.13037485944332836 0.10469104665677155 0.13980267245500871 0.012846159736803128 0.12688567018685884 0.12945674009384667 0.11407132765758138 0.11044063089004044 0.10855146048416325 0.11879431595170413 0.043803029502976973 0.040939742697604767 0.17451127441879 0.1197905369916718 0.081446577032105422 0.11043320743275549 0.18788142017616133 0.12399840276787122 0.10326500749177972 0.10821207158963175 0.076224754635689937 0.12211277401328799 0.1473442028435285 0.16180568927422911 0.10605750034353184 0.090584313786119655 0.14697604513686927 0.11105203651100294 0.10021723679808628 0.10729620719755356 0.067542660481098804 0.13796705870482578 0.048859216848672476 0.11597185424187884 0.10431697631297859
leaf_weight=42.365216165781021 229.51978875696659 356.61543725430965 236.49758906662464 55.074781015515327 435.36489789187908 56.81923109292984 3897.8490944057703 202.60541613399982 92.954268410801888 58.812888324260712 834.34555131196976 287.08664131164551 2001.3826531022787 2159.878402993083 281.10566961765289 1030.7207885980606 49.592223629355431 217.308638215065 67.784345865249634 3988.0620841234922 271.88500492274761 87.72091817855835 219.30229544639587 20.434986621141434 126.8464413434267 2387.9029488265514 96.941582873463631 530.31282353401184 246.71508237719536 10.466700464487074 10.715907618403433 599.84161947667599 284.84377692639828 275.37390507757664 817.15025769174099 3257.8851231485605 3191.0976058989763 21.930229544639587 63.298617094755173 88.468539640307426 86.225675255060196 116.62894803285599 3653.6260835677385 23.6746796220541 58.812888324260712 650.43067172169685 49.84143078327179 126.8464413434267 2242.6151780933142 140.80204196274281 63.797031402587891 66.538310095667839 320.48039993643761 133.32582734525204 146.78301365673542 53.579538092017174 1553.058983206749 69.279588788747787 365.83610194921494 10.965114772319792 168.46403604745865 69.778003096580505
leaf_count=170 921 1431 949 221 1747 228 15641 813 373 236 3348 1152 8031 8667 1128 4136 199 872 272 16003 1091 352 880 82 509 9582 389 2128 990 42 43 2407 1143 1105 3279 13073 12805 88 254 355 346 468 14661 95 236 2610 200 509 8999 565 256 267 1286 535 589 215 6232 278 1468 44 676 280
internal_value=0.112667 0.114033 0.0639888 0.113275 0.0528516 0.109418 0.117451 0.140329 0.121457 0.116676 0.122424 0.111016 0.109241 0.1059 0.121 0.12173 0.118531 0.151506 0.0846953 0.115988 0.115079 0.11627 0.127313 0.0362377 0.0611681 0.0987131 0.113056 0.116158 0.121338 0.104383 0.0939947 0.11448 0.142083 0.131545 0.106078 0.108596 0.116106 0.10796 0.0550529 0.155923 0.137759 0.107612 0.113226 0.136056 0.149832 0.0976533 0.139756 0.0988417 0.125449 0.123607 0.109655 0.133324 0.108622 0.11563 0.0969074 0.134269 0.104434 0.0997562 0.126371 0.135344 0.129692 0.13286
internal_weight=39362.3 38287.9 1074.33 37216.1 886.928 19344.5 17871.6 1071.84 9348.51 187.404 8991.89 16832.2 12403 6748.03 8157.55 7917.81 5033.98 731.672 304.282 4429.16 4313.53 340.168 2883.83 582.646 147.281 2512.26 8523.13 5028 603.58 6144.45 861.758 4497.69 502.152 790.236 5282.69 3495.13 4243.75 1052.65 73.7653 138.061 128.591 3374.51 5655.01 120.616 115.632 787.993 137.562 777.277 2664.52 2383.42 3122.81 130.335 2992.48 1118.94 239.737 325.465 1873.54 2457.18 652.175 376.801 301.79 356.865
internal_count=157950 153639 4311 149338 3559 77624 71714 4301 37513 752 36082 67543 49770 27078 32734 31772 20200 2936 1221 17773 17309 1365 11572 2338 591 10081 34201 20176 2422 24656 3458 18048 2015 3171 21198 14025 17029 4224 296 554 516 13541 22692 484 464 3162 552 3119 10692 9564 12531 523 12008 4490 962 1306 7518 9860 2617 1512 1211 1432
is_linear=0
shrinkage=1


end of trees

feature_importances:
atr_pct=8
dist_high_52w=5
macd=4
macd_signal=4
rsi_7=3
rsi_14=3
adx=3
dist_low_52w=3
ret_3d=2
ret_10d=2
close_sma5_ratio=2
vol_5d=2
vol_ratio=2
vol_change=2
trend_50_200=2
ret_21d=1
ret_63d=1
rsi_21=1
sma_5=1
close_sma100_ratio=1
sma_200=1
macd_cross=1
bb_pos_20=1
atr_14=1
vol_z=1
vol_trend_5=1
pos_52w=1
ma_aligned=1
dow_fri=1
sym_hash=1

parameters:
[boosting: gbdt]
[objective: binary]
[metric: auc]
[tree_learner: serial]
[device_type: cpu]
[data_sample_strategy: bagging]
[data: ]
[valid: ]
[num_iterations: 500]
[learning_rate: 0.05]
[num_leaves: 63]
[num_threads: 4]
[seed: 42]
[deterministic: 0]
[force_col_wise: 0]
[force_row_wise: 0]
[histogram_pool_size: -1]
[max_depth: -1]
[min_data_in_leaf: 20]
[min_sum_hessian_in_leaf: 0.001]
[bagging_fraction: 0.8]
[pos_bagging_fraction: 1]
[neg_bagging_fraction: 1]
[bagging_freq: 5]
[bagging_seed: 400]
[bagging_by_query: 0]
[feature_fraction: 0.8]
[feature_fraction_bynode: 1]
[feature_fraction_seed: 30056]
[extra_trees: 0]
[extra_seed: 12879]
[early_stopping_round: 0]
[early_stopping_min_delta: 0]
[first_metric_only: 0]
[max_delta_step: 0]
[lambda_l1: 0.1]
[lambda_l2: 0.1]
[linear_lambda: 0]
[min_gain_to_split: 0]
[drop_rate: 0.1]
[max_drop: 50]
[skip_drop: 0.5]
[xgboost_dart_mode: 0]
[uniform_drop: 0]
[drop_seed: 17869]
[top_rate: 0.2]
[other_rate: 0.1]
[min_data_per_group: 100]
[max_cat_threshold: 32]
[cat_l2: 10]
[cat_smooth: 10]
[max_cat_to_onehot: 4]
[top_k: 20]
[monotone_constraints: ]
[monotone_constraints_method: basic]
[monotone_penalty: 0]
[feature_contri: ]
[forcedsplits_filename: ]
[refit_decay_rate: 0.9]
[cegb_tradeoff: 1]
[cegb_penalty_split: 0]
[cegb_penalty_feature_lazy: ]
[cegb_penalty_feature_coupled: ]
[path_smooth: 0]
[interaction_constraints: ]
[verbosity: -1]
[saved_feature_importance_type: 0]
[use_quantized_grad: 0]
[num_grad_quant_bins: 4]
[quant_train_renew_leaf: 0]
[stochastic_rounding: 1]
[linear_tree: 0]
[max_bin: 255]
[max_bin_by_feature: ]
[min_data_in_bin: 3]
[bin_construct_sample_cnt: 200000]
[data_random_seed: 175]
[is_enable_sparse: 1]
[enable_bundle: 1]
[use_missing: 1]
[zero_as_missing: 0]
[feature_pre_filter: 1]
[pre_partition: 0]
[two_round: 0]
[header: 0]
[label_column: ]
[weight_column: ]
[group_column: ]
[ignore_column: ]
[categorical_feature: ]
[forcedbins_filename: ]
[precise_float_parser: 0]
[parser_config_file: ]
[objective_seed: 16083]
[num_class: 1]
[is_unbalance: 0]
[scale_pos_weight: 1]
[sigmoid: 1]
[boost_from_average: 1]
[reg_sqrt: 0]
[alpha: 0.9]
[fair_c: 1]
[poisson_max_delta_step: 0.7]
[tweedie_variance_power: 1.5]
[lambdarank_truncation_level: 30]
[lambdarank_norm: 1]
[label_gain: ]
[lambdarank_position_bias_regularization: 0]
[eval_at: ]
[multi_error_top_k: 1]
[auc_mu_weights: ]
[num_machines: 1]
[local_listen_port: 12400]
[time_out: 120]
[machine_list_filename: ]
[machines: ]
[gpu_platform_id: -1]
[gpu_device_id: -1]
[gpu_use_dp: 0]
[num_gpu: 1]

end of parameters

pandas_categorical:[]
